<?xml version="1.0" encoding="UTF-8" standalone="yes"?>
<PMML xmlns="http://www.dmg.org/PMML-4_3" version="4.3">
    <Header>
        <Application/>
        <Timestamp>2017-07-08T18:27:07Z</Timestamp>
    </Header>
    <DataDictionary>
        <DataField name="features" optype="categorical" dataType="double">
            <Value value="1.1"/>
            <Value value="2"/>
            <Value value="2.2"/>
            <Value value="4.4"/>
        </DataField>
        <DataField name="label" optype="categorical" dataType="integer">
            <Value value="0"/>
            <Value value="1"/>
            <Value value="2"/>
            <Value value="3"/>
            <Value value="4"/>
            <Value value="5"/>
            <Value value="6"/>
            <Value value="7"/>
            <Value value="8"/>
            <Value value="9"/>
            <Value value="10"/>
            <Value value="11"/>
            <Value value="12"/>
            <Value value="13"/>
            <Value value="14"/>
            <Value value="15"/>
            <Value value="16"/>
            <Value value="17"/>
            <Value value="18"/>
            <Value value="19"/>
            <Value value="20"/>
            <Value value="21"/>
            <Value value="22"/>
            <Value value="23"/>
            <Value value="24"/>
            <Value value="25"/>
            <Value value="26"/>
            <Value value="27"/>
            <Value value="28"/>
            <Value value="29"/>
            <Value value="30"/>
            <Value value="31"/>
            <Value value="32"/>
            <Value value="33"/>
            <Value value="34"/>
            <Value value="35"/>
            <Value value="36"/>
            <Value value="37"/>
            <Value value="38"/>
            <Value value="39"/>
            <Value value="40"/>
            <Value value="41"/>
            <Value value="42"/>
            <Value value="43"/>
            <Value value="44"/>
            <Value value="45"/>
            <Value value="46"/>
            <Value value="47"/>
            <Value value="48"/>
            <Value value="49"/>
            <Value value="50"/>
            <Value value="51"/>
            <Value value="52"/>
            <Value value="53"/>
            <Value value="54"/>
            <Value value="55"/>
        </DataField>
    </DataDictionary>
    <TransformationDictionary>
        <DerivedField name="indexedFeatures[0]" optype="categorical" dataType="integer">
            <MapValues outputColumn="output">
                <FieldColumnPair field="features" column="input"/>
                <InlineTable>
                    <row>
                        <input xmlns:ns2="http://www.dmg.org/PMML-4_3" xmlns="">1.1</input>
                        <output xmlns:ns2="http://www.dmg.org/PMML-4_3" xmlns="">0</output>
                    </row>
                    <row>
                        <input xmlns:ns2="http://www.dmg.org/PMML-4_3" xmlns="">2</input>
                        <output xmlns:ns2="http://www.dmg.org/PMML-4_3" xmlns="">1</output>
                    </row>
                    <row>
                        <input xmlns:ns2="http://www.dmg.org/PMML-4_3" xmlns="">2.2</input>
                        <output xmlns:ns2="http://www.dmg.org/PMML-4_3" xmlns="">2</output>
                    </row>
                    <row>
                        <input xmlns:ns2="http://www.dmg.org/PMML-4_3" xmlns="">4.4</input>
                        <output xmlns:ns2="http://www.dmg.org/PMML-4_3" xmlns="">3</output>
                    </row>
                </InlineTable>
            </MapValues>
        </DerivedField>
    </TransformationDictionary>
    <TreeModel functionName="classification" splitCharacteristic="binarySplit">
        <MiningSchema>
            <MiningField name="label" usageType="target"/>
            <MiningField name="features"/>
        </MiningSchema>
        <Output>
            <OutputField name="pmml(prediction)" optype="categorical" dataType="integer" feature="predictedValue"/>
            <OutputField name="prediction" optype="categorical" dataType="double" feature="transformedValue">
                <MapValues outputColumn="output">
                    <FieldColumnPair field="pmml(prediction)" column="input"/>
                    <InlineTable>
                        <row>
                            <input xmlns:ns2="http://www.dmg.org/PMML-4_3" xmlns="">0</input>
                            <output xmlns:ns2="http://www.dmg.org/PMML-4_3" xmlns="">0</output>
                        </row>
                        <row>
                            <input xmlns:ns2="http://www.dmg.org/PMML-4_3" xmlns="">1</input>
                            <output xmlns:ns2="http://www.dmg.org/PMML-4_3" xmlns="">1</output>
                        </row>
                        <row>
                            <input xmlns:ns2="http://www.dmg.org/PMML-4_3" xmlns="">2</input>
                            <output xmlns:ns2="http://www.dmg.org/PMML-4_3" xmlns="">2</output>
                        </row>
                        <row>
                            <input xmlns:ns2="http://www.dmg.org/PMML-4_3" xmlns="">3</input>
                            <output xmlns:ns2="http://www.dmg.org/PMML-4_3" xmlns="">3</output>
                        </row>
                        <row>
                            <input xmlns:ns2="http://www.dmg.org/PMML-4_3" xmlns="">4</input>
                            <output xmlns:ns2="http://www.dmg.org/PMML-4_3" xmlns="">4</output>
                        </row>
                        <row>
                            <input xmlns:ns2="http://www.dmg.org/PMML-4_3" xmlns="">5</input>
                            <output xmlns:ns2="http://www.dmg.org/PMML-4_3" xmlns="">5</output>
                        </row>
                        <row>
                            <input xmlns:ns2="http://www.dmg.org/PMML-4_3" xmlns="">6</input>
                            <output xmlns:ns2="http://www.dmg.org/PMML-4_3" xmlns="">6</output>
                        </row>
                        <row>
                            <input xmlns:ns2="http://www.dmg.org/PMML-4_3" xmlns="">7</input>
                            <output xmlns:ns2="http://www.dmg.org/PMML-4_3" xmlns="">7</output>
                        </row>
                        <row>
                            <input xmlns:ns2="http://www.dmg.org/PMML-4_3" xmlns="">8</input>
                            <output xmlns:ns2="http://www.dmg.org/PMML-4_3" xmlns="">8</output>
                        </row>
                        <row>
                            <input xmlns:ns2="http://www.dmg.org/PMML-4_3" xmlns="">9</input>
                            <output xmlns:ns2="http://www.dmg.org/PMML-4_3" xmlns="">9</output>
                        </row>
                        <row>
                            <input xmlns:ns2="http://www.dmg.org/PMML-4_3" xmlns="">10</input>
                            <output xmlns:ns2="http://www.dmg.org/PMML-4_3" xmlns="">10</output>
                        </row>
                        <row>
                            <input xmlns:ns2="http://www.dmg.org/PMML-4_3" xmlns="">11</input>
                            <output xmlns:ns2="http://www.dmg.org/PMML-4_3" xmlns="">11</output>
                        </row>
                        <row>
                            <input xmlns:ns2="http://www.dmg.org/PMML-4_3" xmlns="">12</input>
                            <output xmlns:ns2="http://www.dmg.org/PMML-4_3" xmlns="">12</output>
                        </row>
                        <row>
                            <input xmlns:ns2="http://www.dmg.org/PMML-4_3" xmlns="">13</input>
                            <output xmlns:ns2="http://www.dmg.org/PMML-4_3" xmlns="">13</output>
                        </row>
                        <row>
                            <input xmlns:ns2="http://www.dmg.org/PMML-4_3" xmlns="">14</input>
                            <output xmlns:ns2="http://www.dmg.org/PMML-4_3" xmlns="">14</output>
                        </row>
                        <row>
                            <input xmlns:ns2="http://www.dmg.org/PMML-4_3" xmlns="">15</input>
                            <output xmlns:ns2="http://www.dmg.org/PMML-4_3" xmlns="">15</output>
                        </row>
                        <row>
                            <input xmlns:ns2="http://www.dmg.org/PMML-4_3" xmlns="">16</input>
                            <output xmlns:ns2="http://www.dmg.org/PMML-4_3" xmlns="">16</output>
                        </row>
                        <row>
                            <input xmlns:ns2="http://www.dmg.org/PMML-4_3" xmlns="">17</input>
                            <output xmlns:ns2="http://www.dmg.org/PMML-4_3" xmlns="">17</output>
                        </row>
                        <row>
                            <input xmlns:ns2="http://www.dmg.org/PMML-4_3" xmlns="">18</input>
                            <output xmlns:ns2="http://www.dmg.org/PMML-4_3" xmlns="">18</output>
                        </row>
                        <row>
                            <input xmlns:ns2="http://www.dmg.org/PMML-4_3" xmlns="">19</input>
                            <output xmlns:ns2="http://www.dmg.org/PMML-4_3" xmlns="">19</output>
                        </row>
                        <row>
                            <input xmlns:ns2="http://www.dmg.org/PMML-4_3" xmlns="">20</input>
                            <output xmlns:ns2="http://www.dmg.org/PMML-4_3" xmlns="">20</output>
                        </row>
                        <row>
                            <input xmlns:ns2="http://www.dmg.org/PMML-4_3" xmlns="">21</input>
                            <output xmlns:ns2="http://www.dmg.org/PMML-4_3" xmlns="">21</output>
                        </row>
                        <row>
                            <input xmlns:ns2="http://www.dmg.org/PMML-4_3" xmlns="">22</input>
                            <output xmlns:ns2="http://www.dmg.org/PMML-4_3" xmlns="">22</output>
                        </row>
                        <row>
                            <input xmlns:ns2="http://www.dmg.org/PMML-4_3" xmlns="">23</input>
                            <output xmlns:ns2="http://www.dmg.org/PMML-4_3" xmlns="">23</output>
                        </row>
                        <row>
                            <input xmlns:ns2="http://www.dmg.org/PMML-4_3" xmlns="">24</input>
                            <output xmlns:ns2="http://www.dmg.org/PMML-4_3" xmlns="">24</output>
                        </row>
                        <row>
                            <input xmlns:ns2="http://www.dmg.org/PMML-4_3" xmlns="">25</input>
                            <output xmlns:ns2="http://www.dmg.org/PMML-4_3" xmlns="">25</output>
                        </row>
                        <row>
                            <input xmlns:ns2="http://www.dmg.org/PMML-4_3" xmlns="">26</input>
                            <output xmlns:ns2="http://www.dmg.org/PMML-4_3" xmlns="">26</output>
                        </row>
                        <row>
                            <input xmlns:ns2="http://www.dmg.org/PMML-4_3" xmlns="">27</input>
                            <output xmlns:ns2="http://www.dmg.org/PMML-4_3" xmlns="">27</output>
                        </row>
                        <row>
                            <input xmlns:ns2="http://www.dmg.org/PMML-4_3" xmlns="">28</input>
                            <output xmlns:ns2="http://www.dmg.org/PMML-4_3" xmlns="">28</output>
                        </row>
                        <row>
                            <input xmlns:ns2="http://www.dmg.org/PMML-4_3" xmlns="">29</input>
                            <output xmlns:ns2="http://www.dmg.org/PMML-4_3" xmlns="">29</output>
                        </row>
                        <row>
                            <input xmlns:ns2="http://www.dmg.org/PMML-4_3" xmlns="">30</input>
                            <output xmlns:ns2="http://www.dmg.org/PMML-4_3" xmlns="">30</output>
                        </row>
                        <row>
                            <input xmlns:ns2="http://www.dmg.org/PMML-4_3" xmlns="">31</input>
                            <output xmlns:ns2="http://www.dmg.org/PMML-4_3" xmlns="">31</output>
                        </row>
                        <row>
                            <input xmlns:ns2="http://www.dmg.org/PMML-4_3" xmlns="">32</input>
                            <output xmlns:ns2="http://www.dmg.org/PMML-4_3" xmlns="">32</output>
                        </row>
                        <row>
                            <input xmlns:ns2="http://www.dmg.org/PMML-4_3" xmlns="">33</input>
                            <output xmlns:ns2="http://www.dmg.org/PMML-4_3" xmlns="">33</output>
                        </row>
                        <row>
                            <input xmlns:ns2="http://www.dmg.org/PMML-4_3" xmlns="">34</input>
                            <output xmlns:ns2="http://www.dmg.org/PMML-4_3" xmlns="">34</output>
                        </row>
                        <row>
                            <input xmlns:ns2="http://www.dmg.org/PMML-4_3" xmlns="">35</input>
                            <output xmlns:ns2="http://www.dmg.org/PMML-4_3" xmlns="">35</output>
                        </row>
                        <row>
                            <input xmlns:ns2="http://www.dmg.org/PMML-4_3" xmlns="">36</input>
                            <output xmlns:ns2="http://www.dmg.org/PMML-4_3" xmlns="">36</output>
                        </row>
                        <row>
                            <input xmlns:ns2="http://www.dmg.org/PMML-4_3" xmlns="">37</input>
                            <output xmlns:ns2="http://www.dmg.org/PMML-4_3" xmlns="">37</output>
                        </row>
                        <row>
                            <input xmlns:ns2="http://www.dmg.org/PMML-4_3" xmlns="">38</input>
                            <output xmlns:ns2="http://www.dmg.org/PMML-4_3" xmlns="">38</output>
                        </row>
                        <row>
                            <input xmlns:ns2="http://www.dmg.org/PMML-4_3" xmlns="">39</input>
                            <output xmlns:ns2="http://www.dmg.org/PMML-4_3" xmlns="">39</output>
                        </row>
                        <row>
                            <input xmlns:ns2="http://www.dmg.org/PMML-4_3" xmlns="">40</input>
                            <output xmlns:ns2="http://www.dmg.org/PMML-4_3" xmlns="">40</output>
                        </row>
                        <row>
                            <input xmlns:ns2="http://www.dmg.org/PMML-4_3" xmlns="">41</input>
                            <output xmlns:ns2="http://www.dmg.org/PMML-4_3" xmlns="">41</output>
                        </row>
                        <row>
                            <input xmlns:ns2="http://www.dmg.org/PMML-4_3" xmlns="">42</input>
                            <output xmlns:ns2="http://www.dmg.org/PMML-4_3" xmlns="">42</output>
                        </row>
                        <row>
                            <input xmlns:ns2="http://www.dmg.org/PMML-4_3" xmlns="">43</input>
                            <output xmlns:ns2="http://www.dmg.org/PMML-4_3" xmlns="">43</output>
                        </row>
                        <row>
                            <input xmlns:ns2="http://www.dmg.org/PMML-4_3" xmlns="">44</input>
                            <output xmlns:ns2="http://www.dmg.org/PMML-4_3" xmlns="">44</output>
                        </row>
                        <row>
                            <input xmlns:ns2="http://www.dmg.org/PMML-4_3" xmlns="">45</input>
                            <output xmlns:ns2="http://www.dmg.org/PMML-4_3" xmlns="">45</output>
                        </row>
                        <row>
                            <input xmlns:ns2="http://www.dmg.org/PMML-4_3" xmlns="">46</input>
                            <output xmlns:ns2="http://www.dmg.org/PMML-4_3" xmlns="">46</output>
                        </row>
                        <row>
                            <input xmlns:ns2="http://www.dmg.org/PMML-4_3" xmlns="">47</input>
                            <output xmlns:ns2="http://www.dmg.org/PMML-4_3" xmlns="">47</output>
                        </row>
                        <row>
                            <input xmlns:ns2="http://www.dmg.org/PMML-4_3" xmlns="">48</input>
                            <output xmlns:ns2="http://www.dmg.org/PMML-4_3" xmlns="">48</output>
                        </row>
                        <row>
                            <input xmlns:ns2="http://www.dmg.org/PMML-4_3" xmlns="">49</input>
                            <output xmlns:ns2="http://www.dmg.org/PMML-4_3" xmlns="">49</output>
                        </row>
                        <row>
                            <input xmlns:ns2="http://www.dmg.org/PMML-4_3" xmlns="">50</input>
                            <output xmlns:ns2="http://www.dmg.org/PMML-4_3" xmlns="">50</output>
                        </row>
                        <row>
                            <input xmlns:ns2="http://www.dmg.org/PMML-4_3" xmlns="">51</input>
                            <output xmlns:ns2="http://www.dmg.org/PMML-4_3" xmlns="">51</output>
                        </row>
                        <row>
                            <input xmlns:ns2="http://www.dmg.org/PMML-4_3" xmlns="">52</input>
                            <output xmlns:ns2="http://www.dmg.org/PMML-4_3" xmlns="">52</output>
                        </row>
                        <row>
                            <input xmlns:ns2="http://www.dmg.org/PMML-4_3" xmlns="">53</input>
                            <output xmlns:ns2="http://www.dmg.org/PMML-4_3" xmlns="">53</output>
                        </row>
                        <row>
                            <input xmlns:ns2="http://www.dmg.org/PMML-4_3" xmlns="">54</input>
                            <output xmlns:ns2="http://www.dmg.org/PMML-4_3" xmlns="">54</output>
                        </row>
                        <row>
                            <input xmlns:ns2="http://www.dmg.org/PMML-4_3" xmlns="">55</input>
                            <output xmlns:ns2="http://www.dmg.org/PMML-4_3" xmlns="">55</output>
                        </row>
                    </InlineTable>
                </MapValues>
            </OutputField>
            <OutputField name="probability(0)" optype="continuous" dataType="double" feature="probability" value="0"/>
            <OutputField name="probability(1)" optype="continuous" dataType="double" feature="probability" value="1"/>
            <OutputField name="probability(2)" optype="continuous" dataType="double" feature="probability" value="2"/>
            <OutputField name="probability(3)" optype="continuous" dataType="double" feature="probability" value="3"/>
            <OutputField name="probability(4)" optype="continuous" dataType="double" feature="probability" value="4"/>
            <OutputField name="probability(5)" optype="continuous" dataType="double" feature="probability" value="5"/>
            <OutputField name="probability(6)" optype="continuous" dataType="double" feature="probability" value="6"/>
            <OutputField name="probability(7)" optype="continuous" dataType="double" feature="probability" value="7"/>
            <OutputField name="probability(8)" optype="continuous" dataType="double" feature="probability" value="8"/>
            <OutputField name="probability(9)" optype="continuous" dataType="double" feature="probability" value="9"/>
            <OutputField name="probability(10)" optype="continuous" dataType="double" feature="probability" value="10"/>
            <OutputField name="probability(11)" optype="continuous" dataType="double" feature="probability" value="11"/>
            <OutputField name="probability(12)" optype="continuous" dataType="double" feature="probability" value="12"/>
            <OutputField name="probability(13)" optype="continuous" dataType="double" feature="probability" value="13"/>
            <OutputField name="probability(14)" optype="continuous" dataType="double" feature="probability" value="14"/>
            <OutputField name="probability(15)" optype="continuous" dataType="double" feature="probability" value="15"/>
            <OutputField name="probability(16)" optype="continuous" dataType="double" feature="probability" value="16"/>
            <OutputField name="probability(17)" optype="continuous" dataType="double" feature="probability" value="17"/>
            <OutputField name="probability(18)" optype="continuous" dataType="double" feature="probability" value="18"/>
            <OutputField name="probability(19)" optype="continuous" dataType="double" feature="probability" value="19"/>
            <OutputField name="probability(20)" optype="continuous" dataType="double" feature="probability" value="20"/>
            <OutputField name="probability(21)" optype="continuous" dataType="double" feature="probability" value="21"/>
            <OutputField name="probability(22)" optype="continuous" dataType="double" feature="probability" value="22"/>
            <OutputField name="probability(23)" optype="continuous" dataType="double" feature="probability" value="23"/>
            <OutputField name="probability(24)" optype="continuous" dataType="double" feature="probability" value="24"/>
            <OutputField name="probability(25)" optype="continuous" dataType="double" feature="probability" value="25"/>
            <OutputField name="probability(26)" optype="continuous" dataType="double" feature="probability" value="26"/>
            <OutputField name="probability(27)" optype="continuous" dataType="double" feature="probability" value="27"/>
            <OutputField name="probability(28)" optype="continuous" dataType="double" feature="probability" value="28"/>
            <OutputField name="probability(29)" optype="continuous" dataType="double" feature="probability" value="29"/>
            <OutputField name="probability(30)" optype="continuous" dataType="double" feature="probability" value="30"/>
            <OutputField name="probability(31)" optype="continuous" dataType="double" feature="probability" value="31"/>
            <OutputField name="probability(32)" optype="continuous" dataType="double" feature="probability" value="32"/>
            <OutputField name="probability(33)" optype="continuous" dataType="double" feature="probability" value="33"/>
            <OutputField name="probability(34)" optype="continuous" dataType="double" feature="probability" value="34"/>
            <OutputField name="probability(35)" optype="continuous" dataType="double" feature="probability" value="35"/>
            <OutputField name="probability(36)" optype="continuous" dataType="double" feature="probability" value="36"/>
            <OutputField name="probability(37)" optype="continuous" dataType="double" feature="probability" value="37"/>
            <OutputField name="probability(38)" optype="continuous" dataType="double" feature="probability" value="38"/>
            <OutputField name="probability(39)" optype="continuous" dataType="double" feature="probability" value="39"/>
            <OutputField name="probability(40)" optype="continuous" dataType="double" feature="probability" value="40"/>
            <OutputField name="probability(41)" optype="continuous" dataType="double" feature="probability" value="41"/>
            <OutputField name="probability(42)" optype="continuous" dataType="double" feature="probability" value="42"/>
            <OutputField name="probability(43)" optype="continuous" dataType="double" feature="probability" value="43"/>
            <OutputField name="probability(44)" optype="continuous" dataType="double" feature="probability" value="44"/>
            <OutputField name="probability(45)" optype="continuous" dataType="double" feature="probability" value="45"/>
            <OutputField name="probability(46)" optype="continuous" dataType="double" feature="probability" value="46"/>
            <OutputField name="probability(47)" optype="continuous" dataType="double" feature="probability" value="47"/>
            <OutputField name="probability(48)" optype="continuous" dataType="double" feature="probability" value="48"/>
            <OutputField name="probability(49)" optype="continuous" dataType="double" feature="probability" value="49"/>
            <OutputField name="probability(50)" optype="continuous" dataType="double" feature="probability" value="50"/>
            <OutputField name="probability(51)" optype="continuous" dataType="double" feature="probability" value="51"/>
            <OutputField name="probability(52)" optype="continuous" dataType="double" feature="probability" value="52"/>
            <OutputField name="probability(53)" optype="continuous" dataType="double" feature="probability" value="53"/>
            <OutputField name="probability(54)" optype="continuous" dataType="double" feature="probability" value="54"/>
            <OutputField name="probability(55)" optype="continuous" dataType="double" feature="probability" value="55"/>
        </Output>
        <Node score="4" recordCount="5.0">
            <True/>
            <ScoreDistribution value="4" recordCount="1.0"/>
            <ScoreDistribution value="5" recordCount="1.0"/>
            <ScoreDistribution value="6" recordCount="1.0"/>
            <ScoreDistribution value="7" recordCount="1.0"/>
            <ScoreDistribution value="55" recordCount="1.0"/>
            <Node score="5" recordCount="2.0">
                <SimpleSetPredicate field="indexedFeatures[0]" booleanOperator="isIn">
                    <Array type="int">1 2</Array>
                </SimpleSetPredicate>
                <ScoreDistribution value="5" recordCount="1.0"/>
                <ScoreDistribution value="55" recordCount="1.0"/>
                <Node score="55" recordCount="1.0">
                    <SimplePredicate field="indexedFeatures[0]" operator="equal" value="1"/>
                    <ScoreDistribution value="55" recordCount="1.0"/>
                </Node>
                <Node score="5" recordCount="1.0">
                    <SimpleSetPredicate field="indexedFeatures[0]" booleanOperator="isIn">
                        <Array type="int">0 2 3</Array>
                    </SimpleSetPredicate>
                    <ScoreDistribution value="5" recordCount="1.0"/>
                </Node>
            </Node>
            <Node score="4" recordCount="3.0">
                <SimpleSetPredicate field="indexedFeatures[0]" booleanOperator="isIn">
                    <Array type="int">0 3</Array>
                </SimpleSetPredicate>
                <ScoreDistribution value="4" recordCount="1.0"/>
                <ScoreDistribution value="6" recordCount="1.0"/>
                <ScoreDistribution value="7" recordCount="1.0"/>
                <Node score="6" recordCount="1.0">
                    <SimplePredicate field="indexedFeatures[0]" operator="equal" value="3"/>
                    <ScoreDistribution value="6" recordCount="1.0"/>
                </Node>
                <Node score="4" recordCount="2.0">
                    <SimpleSetPredicate field="indexedFeatures[0]" booleanOperator="isIn">
                        <Array type="int">0 1 2</Array>
                    </SimpleSetPredicate>
                    <ScoreDistribution value="4" recordCount="1.0"/>
                    <ScoreDistribution value="7" recordCount="1.0"/>
                </Node>
            </Node>
        </Node>
    </TreeModel>
</PMML>
